digraph Tree {
node [shape=box, style="filled, rounded", color="black", fontname="helvetica"] ;
edge [fontname="helvetica"] ;
0 [label="age <= 16.5\ngini = 0.912\nsamples = 108\nvalue = [5, 4, 6, 7, 6, 8, 8, 6, 7, 13, 13, 12, 13]\nclass = 88", fillcolor="#ffffff"] ;
1 [label="age <= 12.5\ngini = 0.666\nsamples = 38\nvalue = [0, 0, 0, 0, 0, 0, 0, 0, 0, 0, 13, 12, 13]\nclass = 76", fillcolor="#ffffff"] ;
0 -> 1 [labeldistance=2.5, labelangle=45, headlabel="True"] ;
2 [label="gini = 0.0\nsamples = 7\nvalue = [0, 0, 0, 0, 0, 0, 0, 0, 0, 0, 7, 0, 0]\nclass = 76", fillcolor="#e539e2"] ;
1 -> 2 ;
3 [label="age <= 15.5\ngini = 0.637\nsamples = 31\nvalue = [0, 0, 0, 0, 0, 0, 0, 0, 0, 0, 6, 12, 13]\nclass = 54", fillcolor="#fef5f5"] ;
1 -> 3 ;
4 [label="age <= 13.5\ngini = 0.625\nsamples = 24\nvalue = [0, 0, 0, 0, 0, 0, 0, 0, 0, 0, 6, 12, 6]\nclass = 65", fillcolor="#f6bddb"] ;
3 -> 4 ;
5 [label="gini = 0.0\nsamples = 6\nvalue = [0, 0, 0, 0, 0, 0, 0, 0, 0, 0, 0, 0, 6]\nclass = 54", fillcolor="#e53941"] ;
4 -> 5 ;
6 [label="gender <= 0.5\ngini = 0.444\nsamples = 18\nvalue = [0, 0, 0, 0, 0, 0, 0, 0, 0, 0, 6, 12, 0]\nclass = 65", fillcolor="#f29cc8"] ;
4 -> 6 ;
7 [label="gini = 0.0\nsamples = 6\nvalue = [0, 0, 0, 0, 0, 0, 0, 0, 0, 0, 0, 6, 0]\nclass = 65", fillcolor="#e53992"] ;
6 -> 7 ;
8 [label="age <= 14.5\ngini = 0.5\nsamples = 12\nvalue = [0, 0, 0, 0, 0, 0, 0, 0, 0, 0, 6, 6, 0]\nclass = 76", fillcolor="#ffffff"] ;
6 -> 8 ;
9 [label="gini = 0.0\nsamples = 6\nvalue = [0, 0, 0, 0, 0, 0, 0, 0, 0, 0, 0, 6, 0]\nclass = 65", fillcolor="#e53992"] ;
8 -> 9 ;
10 [label="gini = 0.0\nsamples = 6\nvalue = [0, 0, 0, 0, 0, 0, 0, 0, 0, 0, 6, 0, 0]\nclass = 76", fillcolor="#e539e2"] ;
8 -> 10 ;
11 [label="gini = 0.0\nsamples = 7\nvalue = [0, 0, 0, 0, 0, 0, 0, 0, 0, 0, 0, 0, 7]\nclass = 54", fillcolor="#e53941"] ;
3 -> 11 ;
12 [label="age <= 19.0\ngini = 0.889\nsamples = 70\nvalue = [5, 4, 6, 7, 6, 8, 8, 6, 7, 13, 0, 0, 0]\nclass = 88", fillcolor="#f7effd"] ;
0 -> 12 [labeldistance=2.5, labelangle=-45, headlabel="False"] ;
13 [label="gini = 0.0\nsamples = 13\nvalue = [0, 0, 0, 0, 0, 0, 0, 0, 0, 13, 0, 0, 0]\nclass = 88", fillcolor="#9a39e5"] ;
12 -> 13 ;
14 [label="age <= 21.0\ngini = 0.885\nsamples = 57\nvalue = [5, 4, 6, 7, 6, 8, 8, 6, 7, 0, 0, 0, 0]\nclass = 90", fillcolor="#ffffff"] ;
12 -> 14 ;
15 [label="gini = 0.0\nsamples = 7\nvalue = [0, 0, 0, 0, 0, 0, 0, 0, 7, 0, 0, 0, 0]\nclass = 94", fillcolor="#4a39e5"] ;
14 -> 15 ;
16 [label="age <= 23.5\ngini = 0.87\nsamples = 50\nvalue = [5, 4, 6, 7, 6, 8, 8, 6, 0, 0, 0, 0, 0]\nclass = 90", fillcolor="#ffffff"] ;
14 -> 16 ;
17 [label="age <= 22.5\ngini = 0.49\nsamples = 14\nvalue = [0, 0, 0, 0, 6, 0, 8, 0, 0, 0, 0, 0, 0]\nclass = 99", fillcolor="#cef0f8"] ;
16 -> 17 ;
18 [label="gini = 0.0\nsamples = 6\nvalue = [0, 0, 0, 0, 6, 0, 0, 0, 0, 0, 0, 0, 0]\nclass = 100", fillcolor="#39e564"] ;
17 -> 18 ;
19 [label="gini = 0.0\nsamples = 8\nvalue = [0, 0, 0, 0, 0, 0, 8, 0, 0, 0, 0, 0, 0]\nclass = 99", fillcolor="#39c5e5"] ;
17 -> 19 ;
20 [label="age <= 25.5\ngini = 0.826\nsamples = 36\nvalue = [5, 4, 6, 7, 0, 8, 0, 6, 0, 0, 0, 0, 0]\nclass = 90", fillcolor="#f8fefc"] ;
16 -> 20 ;
21 [label="age <= 24.5\ngini = 0.49\nsamples = 14\nvalue = [0, 0, 0, 0, 0, 8, 0, 6, 0, 0, 0, 0, 0]\nclass = 90", fillcolor="#cef8ec"] ;
20 -> 21 ;
22 [label="gini = 0.0\nsamples = 6\nvalue = [0, 0, 0, 0, 0, 0, 0, 6, 0, 0, 0, 0, 0]\nclass = 87", fillcolor="#3978e5"] ;
21 -> 22 ;
23 [label="gini = 0.0\nsamples = 8\nvalue = [0, 0, 0, 0, 0, 8, 0, 0, 0, 0, 0, 0, 0]\nclass = 90", fillcolor="#39e5b4"] ;
21 -> 23 ;
24 [label="age <= 26.5\ngini = 0.74\nsamples = 22\nvalue = [5, 4, 6, 7, 0, 0, 0, 0, 0, 0, 0, 0, 0]\nclass = 111", fillcolor="#f5fdf3"] ;
20 -> 24 ;
25 [label="gini = 0.0\nsamples = 7\nvalue = [0, 0, 0, 7, 0, 0, 0, 0, 0, 0, 0, 0, 0]\nclass = 111", fillcolor="#5be539"] ;
24 -> 25 ;
26 [label="age <= 28.0\ngini = 0.658\nsamples = 15\nvalue = [5, 4, 6, 0, 0, 0, 0, 0, 0, 0, 0, 0, 0]\nclass = 143", fillcolor="#f7fceb"] ;
24 -> 26 ;
27 [label="gini = 0.0\nsamples = 6\nvalue = [0, 0, 6, 0, 0, 0, 0, 0, 0, 0, 0, 0, 0]\nclass = 143", fillcolor="#ace539"] ;
26 -> 27 ;
28 [label="age <= 29.5\ngini = 0.494\nsamples = 9\nvalue = [5, 4, 0, 0, 0, 0, 0, 0, 0, 0, 0, 0, 0]\nclass = 123", fillcolor="#fae6d7"] ;
26 -> 28 ;
29 [label="gini = 0.0\nsamples = 5\nvalue = [5, 0, 0, 0, 0, 0, 0, 0, 0, 0, 0, 0, 0]\nclass = 123", fillcolor="#e58139"] ;
28 -> 29 ;
30 [label="gini = 0.0\nsamples = 4\nvalue = [0, 4, 0, 0, 0, 0, 0, 0, 0, 0, 0, 0, 0]\nclass = 132", fillcolor="#e5ce39"] ;
28 -> 30 ;
}